tree
version=v3
num_class=1
num_tree_per_iteration=1
label_index=0
max_feature_idx=42
objective=binary sigmoid:1
feature_names=Column_0 Column_1 Column_2 Column_3 Column_4 Column_5 Column_6 Column_7 Column_8 Column_9 Column_10 Column_11 Column_12 Column_13 Column_14 Column_15 Column_16 Column_17 Column_18 Column_19 Column_20 Column_21 Column_22 Column_23 Column_24 Column_25 Column_26 Column_27 Column_28 Column_29 Column_30 Column_31 Column_32 Column_33 Column_34 Column_35 Column_36 Column_37 Column_38 Column_39 Column_40 Column_41 Column_42
feature_infos=[0:1.0000000000000002] [0:0.99999999999999989] none [0:1] [0:1] [0:1] none [0:1] [0:1] [0:1] [0:1] [0:1] [0:1] [0:0.99999999999999989] [0:1] [0:1] [0:1] [0:1] [0:1] [0:1] [0:1] [0:1] [0:1] [0:1] [0:1] [0:1] [0:1] [0:1] [0:1] [0:1] none none none none [0:0.99999999999999989] [0:1] [0:1] [0:1] [0:1] none [0:1] [0:1] [0:1]
tree_sizes=664 680 676 678 673 679 677 674 675 681 682 682 681 684 682 681 685 683 678 680 684 685 681 680 684 682 682 683 677 679 676 684 680 682 680 681 683 680 688 677 678 690 685 680 678 688 681 678 684 685 686 688 682 692 686 692 684 688 684 678 679 685 684 681 675 688 679 677 686 680 686 690 671 683 694 684 689 680 682 678 680 676 671 688 688 694 679 686 678 674 672 687 691 688 683 682 678 680 687 674

Tree=0
num_leaves=5
num_cat=0
split_feature=35 8 1 35
split_gain=313.153 279.246 86.2355 52.8571
threshold=0.42021276595744689 1.0000000180025095e-35 0.68750000000000011 0.52659574468085113
decision_type=2 2 2 2
left_child=2 -2 -1 -3
right_child=1 3 -4 -5
leaf_value=-1.0445574357665266 -1.0330997318349462 -1.0644937852343541 -1.027793474052612 -1.0817740384835675
leaf_weight=2724.8042990863323 585.08067771792412 905.19378414750099 1067.7482187449932 865.80411618947983
leaf_count=14181 3045 4711 5557 4506
internal_value=-1.04873 -1.06305 -1.03984 -1.07294
internal_weight=0 2356.08 3792.55 1771
internal_count=32000 12262 19738 9217
is_linear=0
shrinkage=1


Tree=1
num_leaves=5
num_cat=0
split_feature=35 8 35 35
split_gain=283.534 263.678 67.2396 52.7877
threshold=0.39893617021276601 1.0000000180025095e-35 0.48404255319148942 0.14361702127659579
decision_type=2 2 2 2
left_child=3 -2 -3 -1
right_child=1 2 -4 -5
leaf_value=0.033170681557068996 0.015459905238299598 -0.010423288801860865 -0.029185078187055687 0.0076698006677661541
leaf_weight=216.15552359819412 637.87923274934292 807.87110649049282 1167.9364183992147 3318.6512703001499
leaf_count=1120 3296 4223 6163 17198
internal_value=0 -0.0124902 -0.0215137 0.00922919
internal_weight=0 2613.69 1975.81 3534.81
internal_count=32000 13682 10386 18318
is_linear=0
shrinkage=0.05


Tree=2
num_leaves=5
num_cat=0
split_feature=35 8 1 35
split_gain=257.522 232.411 76.0884 47.3399
threshold=0.42021276595744689 1.0000000180025095e-35 0.68750000000000011 0.52659574468085113
decision_type=2 2 2 2
left_child=2 -2 -1 -3
right_child=1 3 -4 -5
leaf_value=0.0035387953719173389 0.01385942899020225 -0.014364692119048837 0.019194244731903082 -0.030911681270250582
leaf_weight=2740.8059585541487 593.7866847217083 890.84172676503658 1082.7092795073986 839.65134903788567
leaf_count=14181 3045 4711 5557 4506
internal_value=0 -0.0131319 0.00797197 -0.0223934
internal_weight=0 2324.28 3823.52 1730.49
internal_count=32000 12262 19738 9217
is_linear=0
shrinkage=0.05


Tree=3
num_leaves=5
num_cat=0
split_feature=35 8 1 35
split_gain=233.925 220.635 65.518 58.2495
threshold=0.39893617021276601 1.0000000180025095e-35 0.68750000000000011 0.48404255319148942
decision_type=2 2 2 2
left_child=2 -2 -1 -3
right_child=1 3 -4 -5
leaf_value=0.0039888546333931461 0.013821942675288202 -0.0095821476121618811 0.018969190130186477 -0.02719287719286588
leaf_weight=2539.4372890293598 646.56315626204014 800.49454119801521 1024.2944716513157 1135.7299822717905
leaf_count=13110 3296 4223 5208 6163
internal_value=0 -0.0114672 0.00829453 -0.0199121
internal_weight=0 2582.79 3563.73 1936.22
internal_count=32000 13682 18318 10386
is_linear=0
shrinkage=0.05


Tree=4
num_leaves=5
num_cat=0
split_feature=35 8 1 35
split_gain=211.784 193.284 60.508 42.3779
threshold=0.42021276595744689 1.0000000180025095e-35 0.68750000000000011 0.52659574468085113
decision_type=2 2 2 2
left_child=2 -2 -1 -3
right_child=1 3 -4 -5
leaf_value=0.0031860548645851298 0.012307448283898632 -0.01306693915046765 0.017056289602944582 -0.028901813950581723
leaf_weight=2749.6977321058512 601.45594038069248 877.52666443586349 1101.186112344265 814.8820298910141
leaf_count=14181 3045 4711 5557 4506
internal_value=0 -0.012039 0.00715234 -0.0206913
internal_weight=0 2293.86 3850.88 1692.41
internal_count=32000 12262 19738 9217
is_linear=0
shrinkage=0.05


Tree=5
num_leaves=5
num_cat=0
split_feature=35 8 35 35
split_gain=193.085 184.641 50.3559 47.7304
threshold=0.39893617021276601 1.0000000180025095e-35 0.48404255319148942 0.27127659574468094
decision_type=2 2 2 2
left_child=3 -2 -3 -1
right_child=1 2 -4 -5
leaf_value=0.013378984318368729 0.012383957914381275 -0.0088075625588958824 -0.025315138850119923 0.0018434687682370319
leaf_weight=1748.5017504841089 654.22310890257359 793.68930019438267 1105.3923445343971 1840.7822232991457
leaf_count=8914 3296 4223 6163 9404
internal_value=0 -0.0105243 -0.0184161 0.00746294
internal_weight=0 2553.3 1899.08 3589.28
internal_count=32000 13682 10386 18318
is_linear=0
shrinkage=0.05


Tree=6
num_leaves=5
num_cat=0
split_feature=35 8 1 35
split_gain=174.672 168.16 51.6717 47.6026
threshold=0.39893617021276601 1.0000000180025095e-35 0.68750000000000011 0.52659574468085113
decision_type=2 2 2 2
left_child=2 -2 -1 -3
right_child=1 3 -4 -5
leaf_value=0.0032361333068495028 0.011697445326484958 -0.010890204162565323 0.016433292017227399 -0.027002653900526065
leaf_weight=2556.9110514372587 657.89080826938152 1089.1449161320925 1044.7740584015846 791.55652177333832
leaf_count=13110 3296 5880 5208 4506
internal_value=0 -0.0100605 0.00706435 -0.0176717
internal_weight=0 2538.59 3601.69 1880.7
internal_count=32000 13682 18318 10386
is_linear=0
shrinkage=0.05


Tree=7
num_leaves=5
num_cat=0
split_feature=35 35 1 1
split_gain=158.538 48.5902 34.7767 34.0075
threshold=0.42021276595744689 0.27127659574468094 0.68750000000000011 0.89583333333333337
decision_type=2 2 2 2
left_child=1 3 -2 -1
right_child=2 -3 -4 -5
leaf_value=0.0089724263421064165 -0.013318958259591094 0.00099943024760662438 0.0034924514458593674 0.027020608877388181
leaf_weight=1446.5371007174253 1883.9938432276249 2120.8420443534851 367.65644624829292 318.46609969437122
leaf_count=7343 10265 10824 1997 1571
internal_value=0 0.00610002 -0.0105739 0.0122289
internal_weight=0 3885.85 2251.65 1765
internal_count=32000 19738 12262 8914
is_linear=0
shrinkage=0.05


Tree=8
num_leaves=5
num_cat=0
split_feature=35 1 35 35
split_gain=144.358 59.4528 39.5032 29.4926
threshold=0.48404255319148942 0.47916666666666669 0.26063829787234044 0.80319148936170226
decision_type=2 2 2 2
left_child=1 2 -1 -2
right_child=3 -3 -4 -5
leaf_value=0.0080959631513901464 -0.014301273539904073 0.010529116165742931 -0.0053457047964134185 0.03304683442750761
leaf_weight=819.15098561346531 1506.2081565707922 2134.221169501543 1642.7685243487358 33.62296636402607
leaf_count=4161 8330 10787 8540 182
internal_value=0 0.00442143 -0.000873278 -0.0132674
internal_weight=0 4596.14 2461.92 1539.83
internal_count=32000 23488 12701 8512
is_linear=0
shrinkage=0.05


Tree=9
num_leaves=5
num_cat=0
split_feature=35 8 35 35
split_gain=131.921 155.948 41.5449 41.5363
threshold=0.39893617021276601 1.0000000180025095e-35 0.14361702127659579 0.52659574468085113
decision_type=2 2 2 2
left_child=2 -2 -1 -3
right_child=1 3 -4 -5
leaf_value=0.026818392023443618 0.012093682000656976 -0.0099541085669077045 0.0046897851495312825 -0.025165660007474777
leaf_weight=226.1905427724123 655.75642900168896 1077.2867785841227 3405.9171476364136 769.18913596868515
leaf_count=1120 3296 5880 17198 4506
internal_value=0 -0.00885212 0.00606785 -0.0162908
internal_weight=0 2502.23 3632.11 1846.48
internal_count=32000 13682 18318 10386
is_linear=0
shrinkage=0.05


Tree=10
num_leaves=5
num_cat=0
split_feature=35 8 35 8
split_gain=120.57 125.856 51.764 72.7246
threshold=0.48404255319148942 1.0000000180025095e-35 0.27127659574468094 1.0000000180025095e-35
decision_type=2 2 2 2
left_child=2 -2 -1 -4
right_child=1 -3 3 -5
leaf_value=0.010663815195800291 0.0092949964893062568 -0.021854840302140952 0.018675044741930272 -0.003617240039160979
leaf_weight=1787.4595808684826 469.13635164499283 1050.0861699730158 431.89442110061646 2392.7950036376715
leaf_count=8914 2349 6163 2174 12400
internal_value=0 -0.0122358 0.00400496 -0.000208754
internal_weight=0 1519.22 4612.15 2824.69
internal_count=32000 8512 23488 14574
is_linear=0
shrinkage=0.05


Tree=11
num_leaves=5
num_cat=0
split_feature=35 8 4 12
split_gain=109.905 123.455 43.5968 34.1193
threshold=0.42021276595744689 1.0000000180025095e-35 0.2142857142857143 0.00088192801748660063
decision_type=2 2 2 2
left_child=2 -2 3 -1
right_child=1 -3 -4 -5
leaf_value=0.0071524204348566564 0.010137705430367377 -0.016277498455332915 0.00086646703946769788 0.024215491115357039
leaf_weight=1094.0400182753801 612.19949139654636 1594.0706846266985 2427.9091393053532 400.11944976449013
leaf_count=5475 3045 9217 12249 2014
internal_value=0 -0.00894776 0.00500191 0.0117217
internal_weight=0 2206.27 3922.07 1494.16
internal_count=32000 12262 19738 7489
is_linear=0
shrinkage=0.05


Tree=12
num_leaves=5
num_cat=0
split_feature=35 8 1 35
split_gain=102.446 106.416 52.5426 29.5997
threshold=0.48404255319148942 1.0000000180025095e-35 0.47916666666666669 0.26063829787234044
decision_type=2 2 2 2
left_child=2 -2 3 -1
right_child=1 -3 -4 -5
leaf_value=0.0063730139326832885 0.0082475806016255645 -0.020407793391409898 0.0093709160541834823 -0.005209381899257062
leaf_weight=831.23926749825478 473.20665769279003 1027.4941778033972 2153.8474862575531 1639.7272938489914
leaf_count=4161 2349 6163 10787 8540
internal_value=0 -0.0113721 0.00366265 -0.00131304
internal_weight=0 1500.7 4624.81 2470.97
internal_count=32000 8512 23488 12701
is_linear=0
shrinkage=0.05


Tree=13
num_leaves=5
num_cat=0
split_feature=35 8 1 8
split_gain=93.2386 82.476 50.8742 33.9409
threshold=0.50531914893617036 1.0000000180025095e-35 0.47916666666666669 1.0000000180025095e-35
decision_type=2 2 2 2
left_child=2 -2 3 -1
right_child=1 -3 -4 -5
leaf_value=0.012760277414375062 0.0058793513623675141 -0.020806555887263257 0.0087148734755782189 -0.0038716079587810762
leaf_weight=355.61532555520535 434.69604086875916 867.05094932019711 2232.8314753174782 2232.1974174231291
leaf_count=1786 2150 5293 11183 11588
internal_value=0 -0.0118953 0.00318513 -0.00158607
internal_weight=0 1301.75 4820.64 2587.81
internal_count=32000 7443 24557 13374
is_linear=0
shrinkage=0.05


Tree=14
num_leaves=5
num_cat=0
split_feature=35 8 35 1
split_gain=87.5051 115.194 66.679 35.1482
threshold=0.27127659574468094 1.0000000180025095e-35 0.48404255319148942 0.47916666666666669
decision_type=2 2 2 2
left_child=-1 -2 3 -3
right_child=1 2 -4 -5
leaf_value=0.0092100975334103476 0.011851750988210702 -0.0091668625215870578 -0.018943902058959183 0.0030000443698392954
leaf_weight=1808.3578494638205 915.02473028004169 1296.0913238078356 1004.8860214650631 1095.1331892162561
leaf_count=8914 4523 6841 6163 5559
internal_value=0 -0.00389398 -0.0081364 -0.00359466
internal_weight=0 4311.14 3396.11 2391.22
internal_count=32000 23086 18563 12400
is_linear=0
shrinkage=0.05


Tree=15
num_leaves=5
num_cat=0
split_feature=35 8 1 35
split_gain=80.3596 100.739 41.4533 31.8252
threshold=0.3563829787234043 1.0000000180025095e-35 0.68750000000000011 0.52659574468085113
decision_type=2 2 2 2
left_child=-1 -2 3 -3
right_child=1 2 -4 -5
leaf_value=0.0056862708233910838 0.0099152572154990772 -0.0096094783516030794 0.0021628378310989235 -0.02350502908332425
leaf_weight=3070.2080221027136 765.66803152859211 1173.8392724841833 471.20306766033173 634.94890689849854
leaf_count=15256 3757 6432 2553 4002
internal_value=0 -0.0057766 -0.0110462 -0.0144873
internal_weight=0 3045.66 2279.99 1808.79
internal_count=32000 16744 12987 10434
is_linear=0
shrinkage=0.05


Tree=16
num_leaves=5
num_cat=0
split_feature=1 35 8 8
split_gain=75.9462 57.5526 57.0232 33.207
threshold=0.68750000000000011 0.50531914893617036 1.0000000180025095e-35 1.0000000180025095e-35
decision_type=2 2 2 2
left_child=1 3 -3 -1
right_child=-2 2 -4 -5
leaf_value=0.012298916464019049 0.0096944572614324469 0.0022947780360157407 -0.021283521274993104 -0.0019711103499863154
leaf_weight=471.78913299739361 1513.1049342602491 394.41693346202374 732.95954620838165 3000.1988870948553
leaf_count=2332 7554 1929 4649 15536
internal_value=0 -0.00321916 -0.0130346 -3.20358e-05
internal_weight=0 4599.36 1127.38 3471.99
internal_count=32000 24446 6578 17868
is_linear=0
shrinkage=0.05


Tree=17
num_leaves=5
num_cat=0
split_feature=35 8 1 35
split_gain=71.6018 90.4593 52.4498 29.4509
threshold=0.27127659574468094 1.0000000180025095e-35 0.47916666666666669 0.52659574468085113
decision_type=2 2 2 2
left_child=-1 -2 3 -3
right_child=1 2 -4 -5
leaf_value=0.0082819458850662536 0.010283275706851849 -0.0089594868831070536 0.00011101093277769514 -0.022850120526523687
leaf_weight=1821.6566881686449 926.37968131899834 1463.1275062561035 1382.1297736763954 516.21850895881653
leaf_count=8914 4523 7907 7312 3344
internal_value=0 -0.0035507 -0.00736316 -0.0125822
internal_weight=0 4287.86 3361.48 1979.35
internal_count=32000 23086 18563 11251
is_linear=0
shrinkage=0.05


Tree=18
num_leaves=5
num_cat=0
split_feature=4 8 35 1
split_gain=69.8404 61.2884 64.5374 28.9792
threshold=0.2142857142857143 1.0000000180025095e-35 0.48404255319148942 0.68750000000000011
decision_type=2 2 2 2
left_child=3 -2 -3 -1
right_child=1 2 -4 -5
leaf_value=0.0040212755926446698 0.0081591081277031016 -0.0028707078467369029 -0.01929442511430185 0.017663725752278283
leaf_weight=1393.0360610932112 868.2595192193985 2520.3192735165358 784.28119757771492 540.21533854305744
leaf_count=7245 4222 12894 5004 2635
internal_value=0 -0.00366251 -0.00676855 0.00783343
internal_weight=0 4172.86 3304.6 1933.25
internal_count=32000 22120 17898 9880
is_linear=0
shrinkage=0.05


Tree=19
num_leaves=5
num_cat=0
split_feature=4 8 35 35
split_gain=62.9345 55.4093 59.342 27.531
threshold=0.2142857142857143 1.0000000180025095e-35 0.48404255319148942 0.27127659574468094
decision_type=2 2 2 2
left_child=-1 -2 3 -3
right_child=1 2 -4 -5
leaf_value=0.007415406788374242 0.0077239957014382816 0.0046356204786572814 -0.018553399955106121 -0.0064430236652844699
leaf_weight=1939.8504891842604 871.23374845087528 843.36166031658649 775.06490752100945 1673.6071337908506
leaf_count=9880 4222 4133 5004 8761
internal_value=0 -0.00348867 -0.00645609 -0.0027309
internal_weight=0 4163.27 3292.03 2516.97
internal_count=32000 22120 17898 12894
is_linear=0
shrinkage=0.05


Tree=20
num_leaves=5
num_cat=0
split_feature=1 35 8 8
split_gain=61.2845 44.2727 37.6857 25.2447
threshold=0.68750000000000011 0.51595744680851074 1.0000000180025095e-35 1.0000000180025095e-35
decision_type=2 2 2 2
left_child=1 3 -3 -1
right_child=-2 2 -4 -5
leaf_value=0.010153664896264823 0.008659327453624216 0.00052842561489809794 -0.019293764357170565 -0.0019710139439363264
leaf_weight=499.82170934975147 1524.541431248188 378.58489722013474 653.99274061620235 3043.1036023646593
leaf_count=2431 7554 1830 4343 15842
internal_value=0 -0.00291572 -0.0120261 -0.000260513
internal_weight=0 4575.5 1032.58 3542.93
internal_count=32000 24446 6173 18273
is_linear=0
shrinkage=0.05


Tree=21
num_leaves=5
num_cat=0
split_feature=4 8 35 12
split_gain=56.1848 46.9966 50.4443 25.8688
threshold=0.2142857142857143 1.0000000180025095e-35 0.48404255319148942 0.00088192801748660063
decision_type=2 2 2 2
left_child=3 -2 -3 -1
right_child=1 2 -4 -5
leaf_value=0.0034186535043236946 0.0069748322017429438 -0.0026495154630850207 -0.017348752891235553 0.016299398834247258
leaf_weight=1407.1559896916151 876.34784439206123 2514.3560911566019 760.10895091295242 539.13896273076534
leaf_count=7120 4222 12894 5004 2760
internal_value=0 -0.00330932 -0.00606168 0.00698672
internal_weight=0 4150.81 3274.47 1946.29
internal_count=32000 22120 17898 9880
is_linear=0
shrinkage=0.05


Tree=22
num_leaves=5
num_cat=0
split_feature=1 35 8 36
split_gain=54.9367 42.955 31.4499 26.139
threshold=0.89583333333333337 0.50531914893617036 1.0000000180025095e-35 1.0000000180025095e-35
decision_type=2 2 2 2
left_child=1 -1 3 -3
right_child=-2 2 -4 -5
leaf_value=0.00042080881599350156 0.01126238368010837 -0.0097749319314375128 -0.016776880245941563 0.015640942999754683
leaf_weight=4022.9380631446838 916.31475026905537 253.77708178758621 733.18249566853046 168.21913933753967
leaf_count=20532 4513 1222 4923 810
internal_value=0 -0.00201949 -0.0105179 0.000356525
internal_weight=0 5178.12 1155.18 421.996
internal_count=32000 27487 6955 2032
is_linear=0
shrinkage=0.05


Tree=23
num_leaves=5
num_cat=0
split_feature=35 8 1 1
split_gain=51.9969 60.5733 39.5585 21.0433
threshold=0.27127659574468094 1.0000000180025095e-35 0.47916666666666669 0.89583333333333337
decision_type=2 2 2 2
left_child=3 -2 -3 -1
right_child=1 2 -4 -5
leaf_value=0.0044635429319509643 0.0081267120643541014 -0.010859986255578047 0.00022823527914188498 0.018271714106097039
leaf_weight=1501.6058300733566 941.92135927081108 1932.2064737975597 1378.0468540787697 338.03138954937458
leaf_count=7343 4523 11251 7312 1571
internal_value=0 -0.00306067 -0.006244 0.00700078
internal_weight=0 4252.17 3310.25 1839.64
internal_count=32000 23086 18563 8914
is_linear=0
shrinkage=0.05


Tree=24
num_leaves=5
num_cat=0
split_feature=4 8 35 12
split_gain=48.9864 38.0303 42.7156 23.5418
threshold=0.2142857142857143 1.0000000180025095e-35 0.37765957446808512 0.00088192801748660063
decision_type=2 2 2 2
left_child=3 -2 -3 -1
right_child=1 2 -4 -5
leaf_value=0.0030983600479826106 0.0061036106413174937 -0.00031140569723802318 -0.011806144626103675 0.015352173711548973
leaf_weight=1410.1026153862476 882.24530033767223 1756.467104151845 1497.0798963010311 542.84791734814644
leaf_count=7120 4222 8782 9116 2760
internal_value=0 -0.00310384 -0.00560057 0.00650447
internal_weight=0 4135.79 3253.55 1952.95
internal_count=32000 22120 17898 9880
is_linear=0
shrinkage=0.05


Tree=25
num_leaves=5
num_cat=0
split_feature=4 8 4 24
split_gain=44.1526 34.3859 31.2554 21.5704
threshold=0.2142857142857143 1.0000000180025095e-35 0.6428571428571429 1.0000000180025095e-35
decision_type=2 2 2 2
left_child=-1 3 -3 -2
right_child=1 2 -4 -5
leaf_value=0.0061605721639417443 0.010413144439077733 -0.0070872278767295464 0.0084390717938448573 -0.0073872230214977706
leaf_weight=1958.6124957501888 654.40870706737041 2877.8867154568434 365.27897816896439 230.01148371398449
leaf_count=9880 3123 15921 1977 1099
internal_value=0 -0.00295532 -0.00533849 0.0057838
internal_weight=0 4127.59 3243.17 884.42
internal_count=32000 22120 17898 4222
is_linear=0
shrinkage=0.05


Tree=26
num_leaves=5
num_cat=0
split_feature=1 4 8 36
split_gain=47.2721 24.7375 25.1687 22.1038
threshold=0.47916666666666669 0.2142857142857143 1.0000000180025095e-35 1.0000000180025095e-35
decision_type=2 2 2 2
left_child=1 -1 3 -3
right_child=-2 2 -4 -5
leaf_value=0.0025296600172979916 0.005065919371558588 -0.0051169472774324053 -0.009491373475956754 0.015085865853575901
leaf_weight=1059.8105674088001 2608.7347268313169 360.18814353644848 1839.0857606232166 216.92902454733849
leaf_count=5489 13146 1728 10602 1035
internal_value=0 -0.00383917 -0.0066327 0.00247696
internal_weight=0 3476.01 2416.2 577.117
internal_count=32000 18854 13365 2763
is_linear=0
shrinkage=0.05


Tree=27
num_leaves=5
num_cat=0
split_feature=35 8 9 40
split_gain=43.6171 45.859 32.62 30.4131
threshold=0.27127659574468094 1.0000000180025095e-35 0.3000000000000001 1.0000000180025095e-35
decision_type=2 2 2 2
left_child=-1 -2 3 -3
right_child=1 2 -4 -5
leaf_value=0.0063888662671459781 0.0068508297047983977 -0.00094325094503406584 0.0086644145199297785 -0.01140592998697326
leaf_weight=1847.8802978545427 951.05774012207985 1133.1875434368849 356.41866162419319 1794.4333176165819
leaf_count=8914 4523 6438 1984 10141
internal_value=0 -0.0028175 -0.00561744 -0.00735616
internal_weight=0 4235.1 3284.04 2927.62
internal_count=32000 23086 18563 16579
is_linear=0
shrinkage=0.05


Tree=28
num_leaves=5
num_cat=0
split_feature=1 35 35 27
split_gain=43.328 34.1623 24.1147 19.2189
threshold=0.68750000000000011 0.53723404255319163 0.80319148936170226 0.70000000000000018
decision_type=2 2 2 2
left_child=1 3 -3 -1
right_child=-2 2 -4 -5
leaf_value=-0.0026499306940709938 0.0072271778870328582 -0.012914622775272794 0.032715286945364928 0.0053626402066865447
leaf_weight=2617.2494831383228 1539.8841656446457 845.523771956563 29.981681630015373 1048.0771954655647
leaf_count=13611 7554 5199 169 5467
internal_value=0 -0.00247836 -0.011352 -0.000358786
internal_weight=0 4540.83 875.505 3665.33
internal_count=32000 24446 5368 19078
is_linear=0
shrinkage=0.05


Tree=29
num_leaves=5
num_cat=0
split_feature=1 35 35 28
split_gain=40.1365 34.2407 25.332 19.9017
threshold=0.89583333333333337 0.50531914893617036 0.80319148936170226 1.0000000180025095e-35
decision_type=2 2 2 2
left_child=1 3 -3 -1
right_child=-2 2 -4 -5
leaf_value=0.0019182439236765103 0.0095552582861078775 -0.010686359761897534 0.034681158830797136 -0.0078484801152701508
leaf_weight=3402.3202362954617 927.42136123776436 1101.7218405008316 31.6534753292799 616.03669413924217
leaf_count=17380 4513 6780 175 3152
internal_value=0 -0.0017439 -0.00941931 0.00042095
internal_weight=0 5151.73 1133.38 4018.36
internal_count=32000 27487 6955 20532
is_linear=0
shrinkage=0.05


Tree=30
num_leaves=5
num_cat=0
split_feature=1 35 8 35
split_gain=37.201 24.7101 30.2544 21.376
threshold=0.47916666666666669 0.3563829787234043 1.0000000180025095e-35 0.13297872340425534
decision_type=2 2 2 2
left_child=1 -1 -3 -2
right_child=3 2 -4 -5
leaf_value=0.0011530444466798034 0.029526122295737992 0.0026272980771480528 -0.011398596857088458 0.0036598946793203104
leaf_weight=1591.0758830606937 82.468954548239708 541.69181334972382 1324.702869027853 2537.537098005414
leaf_count=8004 380 2587 8263 12766
internal_value=0 -0.00342504 -0.0073278 0.00447408
internal_weight=0 3457.47 1866.39 2620.01
internal_count=32000 18854 10850 13146
is_linear=0
shrinkage=0.05


Tree=31
num_leaves=5
num_cat=0
split_feature=4 8 35 24
split_gain=34.8186 26.929 32.7918 20.1467
threshold=0.2142857142857143 1.0000000180025095e-35 0.27127659574468094 1.0000000180025095e-35
decision_type=2 2 2 2
left_child=-1 3 -3 -2
right_child=1 2 -4 -5
leaf_value=0.0054484588613971617 0.0095149391205596422 0.0036591873339709619 -0.0077915842242015495 -0.0076599796844023099
leaf_weight=1968.2370724231005 658.61736609041691 849.51723982393742 2368.0567163676023 230.50660479068756
leaf_count=9880 3123 4133 13765 1099
internal_value=0 -0.00263992 -0.0047683 0.00506232
internal_weight=0 4106.7 3217.57 889.124
internal_count=32000 22120 17898 4222
is_linear=0
shrinkage=0.05


Tree=32
num_leaves=5
num_cat=0
split_feature=1 35 35 36
split_gain=34.1864 29.8498 22.5307 20.0821
threshold=0.89583333333333337 0.50531914893617036 0.80319148936170226 1.0000000180025095e-35
decision_type=2 2 2 2
left_child=1 -1 3 -3
right_child=-2 2 -4 -5
leaf_value=0.00039772320127335459 0.0087889532833199616 -0.015652055065303174 0.032447983804689461 -0.0018397132066076006
leaf_weight=4017.2239246219397 932.49724613130093 647.5300318300724 32.122824296355247 443.32578629255295
leaf_count=20532 4513 4022 175 2758
internal_value=0 -0.0016168 -0.00882336 -0.0100387
internal_weight=0 5140.2 1122.98 1090.86
internal_count=32000 27487 6955 6780
is_linear=0
shrinkage=0.05


Tree=33
num_leaves=5
num_cat=0
split_feature=35 1 8 35
split_gain=33.231 27.5152 18.49 25.7998
threshold=0.14361702127659579 0.47916666666666669 1.0000000180025095e-35 0.34574468085106386
decision_type=2 2 2 2
left_child=-1 2 -2 -4
right_child=1 -3 3 -5
leaf_value=0.01822765619817868 0.0034304212451853329 0.0031935325990147217 -0.00043093996922654069 -0.010365683155190616
leaf_weight=239.68666063249111 706.99773046374321 2501.9105885475874 1236.7336041033268 1385.7124251276255
leaf_count=1120 3381 12577 6255 8667
internal_value=0 -0.000768532 -0.00374583 -0.0056805
internal_weight=0 5831.35 3329.44 2622.45
internal_count=32000 30880 18303 14922
is_linear=0
shrinkage=0.05


Tree=34
num_leaves=5
num_cat=0
split_feature=4 8 4 35
split_gain=30.079 23.601 27.6095 25.0392
threshold=0.2142857142857143 1.0000000180025095e-35 0.6428571428571429 0.37765957446808512
decision_type=2 2 2 2
left_child=-1 -2 3 -3
right_child=1 2 -4 -5
leaf_value=0.0050522846354555465 0.0047349191655527431 -0.0018125655574946541 0.0084957381957646502 -0.011236959312767907
leaf_weight=1973.6264151781797 891.20450255274773 1539.6481866240501 364.23350457847118 1299.7412728518248
leaf_count=9880 4222 7716 1977 8205
internal_value=0 -0.00246204 -0.00446414 -0.00612662
internal_weight=0 4094.83 3203.62 2839.39
internal_count=32000 22120 17898 15921
is_linear=0
shrinkage=0.05


Tree=35
num_leaves=5
num_cat=0
split_feature=1 27 35 9
split_gain=29.1291 29.4134 18.9008 21.0058
threshold=0.89583333333333337 0.70000000000000018 0.40957446808510639 0.3000000000000001
decision_type=2 2 2 2
left_child=1 2 -1 -4
right_child=-2 -3 3 -5
leaf_value=-0.00085587639055365288 0.0080880713918678356 0.0047738584507768774 -0.010073230284604207 0.0091730233072974624
leaf_weight=2234.5368207246065 937.09625852108002 1369.7496942281723 1366.5081446915865 158.18154519796371
leaf_count=11150 4513 7214 8197 926
internal_value=0 -0.00149887 -0.00378446 -0.00807649
internal_weight=0 5128.98 3759.23 1524.69
internal_count=32000 27487 20273 9123
is_linear=0
shrinkage=0.05


Tree=36
num_leaves=5
num_cat=0
split_feature=1 4 40 8
split_gain=26.6815 16.6058 16.4573 16.25
threshold=0.47916666666666669 0.2142857142857143 1.0000000180025095e-35 1.0000000180025095e-35
decision_type=2 2 2 2
left_child=1 2 -1 -3
right_child=-2 3 -4 -5
leaf_value=0.010780762798568195 0.0037692387179147657 0.002034416940089987 -0.0022842046879986899 -0.0076003051047368007
leaf_weight=370.39384679496288 2632.5460371375084 579.00566299259663 690.16553999483585 1792.4632201641798
leaf_count=1907 13146 2763 3582 10602
internal_value=0 -0.00292209 0.00227865 -0.00524794
internal_weight=0 3432.03 1060.56 2371.47
internal_count=32000 18854 5489 13365
is_linear=0
shrinkage=0.05


Tree=37
num_leaves=5
num_cat=0
split_feature=35 1 27 5
split_gain=28.3825 21.6253 22.7482 15.1075
threshold=0.14361702127659579 0.68750000000000011 0.70000000000000018 1.0000000180025095e-35
decision_type=2 2 2 2
left_child=3 2 -2 -1
right_child=1 -3 -4 -5
leaf_value=0.011210237780099566 -0.0046356354549602439 0.0044944335835629462 0.0036360368221360034 0.044876158621132228
leaf_weight=202.05427926778793 3215.5948084890842 1484.4203485548496 1120.9392580240965 39.904971852898598
leaf_count=934 17670 7216 5994 186
internal_value=0 -0.000714474 -0.00249751 0.0167626
internal_weight=0 5820.95 4336.53 241.959
internal_count=32000 30880 23664 1120
is_linear=0
shrinkage=0.05


Tree=38
num_leaves=5
num_cat=0
split_feature=35 8 35 15
split_gain=25.4554 21.9016 30.1929 20.1829
threshold=0.14361702127659579 1.0000000180025095e-35 0.57978723404255328 1.0000000180025095e-35
decision_type=2 2 2 2
left_child=-1 -2 3 -3
right_child=1 2 -4 -5
leaf_value=0.015823961760141027 0.0057035136119364289 0.0002526564425604396 -0.015198123756406764 -0.010808362058344383
leaf_weight=243.434291228652 1091.7800164818764 3859.1541993319988 405.54099653661251 461.76036006212234
leaf_count=1120 5166 20334 2953 2427
internal_value=0 -0.000679298 -0.00215368 -0.000929394
internal_weight=0 5818.24 4726.46 4320.91
internal_count=32000 30880 25714 22761
is_linear=0
shrinkage=0.05


Tree=39
num_leaves=5
num_cat=0
split_feature=4 12 35 4
split_gain=24.0481 22.0652 21.939 19.6364
threshold=0.2142857142857143 0.00088192801748660063 0.29255319148936171 0.6428571428571429
decision_type=2 2 2 2
left_child=1 -1 -3 -2
right_child=3 2 -4 -5
leaf_value=0.0012245567627591199 -0.0034310230193293568 0.024337706077008817 0.0042320363371497081 0.0076603443294496398
leaf_weight=1429.4410437345505 3629.8835702836514 240.51868298649788 311.27978464961052 448.34308615326881
leaf_count=7120 19749 1125 1635 2371
internal_value=0 0.00450296 0.0129957 -0.00221168
internal_weight=0 1981.24 551.798 4078.23
internal_count=32000 9880 2760 22120
is_linear=0
shrinkage=0.05


Tree=40
num_leaves=5
num_cat=0
split_feature=1 35 35 0
split_gain=22.9814 21.8797 21.5125 16.7339
threshold=0.89583333333333337 0.53723404255319163 0.80319148936170226 0.63590271805436116
decision_type=2 2 2 2
left_child=1 -1 -3 -2
right_child=3 2 -4 -5
leaf_value=0.00016478837957273546 0.0020212266567292011 -0.0099556571198442158 0.031668766182567094 0.015794014455467572
leaf_weight=4223.2551816850901 591.59743735194206 859.88907527923584 32.203381046652794 351.62633506953716
leaf_count=21838 2830 5474 175 1683
internal_value=0 -0.00133813 -0.00845307 0.00715561
internal_weight=0 5115.35 892.092 943.224
internal_count=32000 27487 5649 4513
is_linear=0
shrinkage=0.05


Tree=41
num_leaves=5
num_cat=0
split_feature=1 29 40 12
split_gain=20.8555 15.8675 15.3486 13.7969
threshold=0.47916666666666669 1.0000000180025095e-35 1.0000000180025095e-35 0.00043418570530287152
decision_type=2 2 2 2
left_child=2 -2 3 -1
right_child=1 -3 -4 -5
leaf_value=0.013314008425562752 0.0040431590894289401 -0.017513872225362142 -0.0053588920525039219 -0.00063657036381191878
leaf_weight=208.71808980405331 2552.0476339012384 88.317182049155235 2033.2380719184875 1174.7880391031504
leaf_count=1165 12712 434 11213 6476
internal_value=0 0.0033221 -0.00259454 0.00146804
internal_weight=0 2640.36 3416.74 1383.51
internal_count=32000 13146 18854 7641
is_linear=0
shrinkage=0.05


Tree=42
num_leaves=5
num_cat=0
split_feature=35 8 35 9
split_gain=22.0759 20.9727 25.9879 27.3834
threshold=0.14361702127659579 1.0000000180025095e-35 0.37765957446808512 0.3000000000000001
decision_type=2 2 2 2
left_child=-1 -2 -3 -4
right_child=1 2 3 -5
leaf_value=0.014682492189680816 0.0056080723072406084 0.00093164812311353855 -0.0086443654995414908 0.011677213702109503
leaf_weight=245.14937996864319 1092.3740176409483 2844.6788601726294 1690.4127856343985 183.79677577316761
leaf_count=1120 5166 14027 10566 1121
internal_value=0 -0.000634967 -0.00208017 -0.0066515
internal_weight=0 5811.26 4718.89 1874.21
internal_count=32000 30880 25714 11687
is_linear=0
shrinkage=0.05


Tree=43
num_leaves=5
num_cat=0
split_feature=27 1 41 35
split_gain=20.7507 23.2055 15.8046 14.4146
threshold=0.70000000000000018 0.89583333333333337 1.0000000180025095e-35 0.27127659574468094
decision_type=2 2 2 2
left_child=1 -1 3 -2
right_child=2 -3 -4 -5
leaf_value=-0.0033220313102212276 0.0095256919426815311 0.0073386262264756507 0.011965116847638181 -0.0021958182634634008
leaf_weight=3734.5710782706738 383.32097455859184 591.28005284070969 514.05761116743088 830.67770677804947
leaf_count=20273 1809 2816 2665 4437
internal_value=0 -0.00186488 0.00461683 0.00150526
internal_weight=0 4325.85 1728.06 1214
internal_count=32000 23089 8911 6246
is_linear=0
shrinkage=0.05


Tree=44
num_leaves=5
num_cat=0
split_feature=4 12 35 8
split_gain=20.4905 20.1563 18.4736 18.3289
threshold=0.2142857142857143 0.00088192801748660063 0.29255319148936171 1.0000000180025095e-35
decision_type=2 2 2 2
left_child=1 -1 -3 -2
right_child=3 2 -4 -5
leaf_value=0.0010140425425428983 0.0042772680845195518 0.022571627038994277 0.0041769626676379746 -0.0038279256800428673
leaf_weight=1430.8228152245283 893.98572844266891 243.11720350384712 311.21701541543007 3173.7386655211449
leaf_count=7120 4222 1125 1635 17898
internal_value=0 0.00415 0.0122444 -0.0020466
internal_weight=0 1985.16 554.334 4067.72
internal_count=32000 9880 2760 22120
is_linear=0
shrinkage=0.05


Tree=45
num_leaves=5
num_cat=0
split_feature=35 8 35 24
split_gain=19.2586 18.0017 24.0352 20.7467
threshold=0.14361702127659579 1.0000000180025095e-35 0.57978723404255328 1.0000000180025095e-35
decision_type=2 2 2 2
left_child=-1 3 -3 -2
right_child=1 2 -4 -5
leaf_value=0.013669515275631565 0.0094876276041418774 -0.00085683404904130585 -0.013734664983312432 -0.0058024856503442719
leaf_weight=246.66094462573528 786.86026610434055 4313.3071077764034 395.55637995898724 308.96754609048367
leaf_count=1120 3706 22761 2953 1460
internal_value=0 -0.000595375 -0.0019386 0.0051766
internal_weight=0 5804.69 4708.86 1095.83
internal_count=32000 30880 25714 5166
is_linear=0
shrinkage=0.05


Tree=46
num_leaves=5
num_cat=0
split_feature=27 1 40 35
split_gain=18.7037 20.8711 13.585 13.4681
threshold=0.70000000000000018 0.89583333333333337 1.0000000180025095e-35 0.53723404255319163
decision_type=2 2 2 2
left_child=1 3 -2 -1
right_child=2 -3 -4 -5
leaf_value=-0.0016399830901733478 0.011147554287304816 0.0069411245776813991 0.0014792319641906109 -0.00910516324767199
leaf_weight=2967.2335957288742 518.92818646132946 592.73297092318535 1211.697760656476 758.65476408600807
leaf_count=15416 2677 2816 6234 4857
internal_value=0 -0.00177363 0.00437828 -0.00316002
internal_weight=0 4318.62 1730.63 3725.89
internal_count=32000 23089 8911 20273
is_linear=0
shrinkage=0.05


Tree=47
num_leaves=5
num_cat=0
split_feature=4 12 4 8
split_gain=18.0327 18.151 17.4644 19.84
threshold=0.2142857142857143 0.00088192801748660063 0.6428571428571429 1.0000000180025095e-35
decision_type=2 2 2 2
left_child=1 -1 3 -2
right_child=2 -3 -4 -5
leaf_value=0.00090825762553390407 0.003796603298679352 0.011547177192251368 0.0073772378258150821 -0.00507773665838788
leaf_weight=1431.4687289595604 812.74639673531055 556.87045049667358 448.87629157304764 2798.0855110362172
leaf_count=7120 3828 2760 2371 15921
internal_value=0 0.00388788 -0.00192398 -0.00308025
internal_weight=0 1988.34 4059.71 3610.83
internal_count=32000 9880 22120 19749
is_linear=0
shrinkage=0.05


Tree=48
num_leaves=5
num_cat=0
split_feature=35 8 40 9
split_gain=17.6694 25.1458 29.1779 19.078
threshold=0.27127659574468094 1.0000000180025095e-35 1.0000000180025095e-35 0.3000000000000001
decision_type=2 2 2 2
left_child=-1 -2 -3 -4
right_child=1 2 3 -5
leaf_value=0.0040134728825500449 0.005264222314395179 0.0019909373919388936 -0.0094850991643128848 0.0065600363285527943
leaf_weight=1878.3091161698103 961.64752048254013 1255.7222229540348 1743.7033363804221 207.28492699563503
leaf_count=8914 4523 7264 10141 1158
internal_value=0 -0.00182734 -0.003954 -0.00778037
internal_weight=0 4168.36 3206.71 1950.99
internal_count=32000 23086 18563 11299
is_linear=0
shrinkage=0.05


Tree=49
num_leaves=5
num_cat=0
split_feature=27 1 36 35
split_gain=17.2741 18.84 12.4105 16.8437
threshold=0.70000000000000018 0.89583333333333337 1.0000000180025095e-35 0.46276595744680854
decision_type=2 2 2 2
left_child=1 2 3 -1
right_child=-2 -3 -4 -5
leaf_value=-0.0025320800783650275 0.0042042712962121302 0.0065609672390041151 0.00051402151032941309 -0.011996491154354392
leaf_weight=1560.1987074613571 1732.4010580033064 594.09530989825726 1485.2275158390403 672.82837116718292
leaf_count=7900 8911 2816 8137 4236
internal_value=0 -0.00170692 -0.00302795 -0.00538378
internal_weight=0 4312.35 3718.25 2233.03
internal_count=32000 23089 20273 12136
is_linear=0
shrinkage=0.05


Tree=50
num_leaves=5
num_cat=0
split_feature=28 35 9 40
split_gain=16.7665 17.8141 21.4492 21.0509
threshold=1.0000000180025095e-35 0.26063829787234044 0.3000000000000001 1.0000000180025095e-35
decision_type=2 2 2 2
left_child=1 -1 3 -3
right_child=-2 2 -4 -5
leaf_value=0.0057263630987549469 -0.0063206097113427577 0.0030791126928522683 0.010118938174827091 -0.0052163566005200626
leaf_weight=1475.790138348937 897.02719953656197 1220.5040834620595 402.10176880657673 2048.1005663573742
leaf_count=6973 4811 6753 2142 11321
internal_value=0 0.00108699 -0.000778245 -0.00211881
internal_weight=0 5146.5 3670.71 3268.6
internal_count=32000 27189 20216 18074
is_linear=0
shrinkage=0.05


Tree=51
num_leaves=5
num_cat=0
split_feature=1 29 36 35
split_gain=15.7245 14.208 13.0543 17.2017
threshold=0.47916666666666669 1.0000000180025095e-35 1.0000000180025095e-35 0.3563829787234043
decision_type=2 2 2 2
left_child=2 -2 3 -1
right_child=1 -3 -4 -5
leaf_value=-8.5707337203334693e-07 0.0035568170723793875 -0.016916038647822138 0.0015522498136541696 -0.0091766243372421365
leaf_weight=980.51070001721382 2557.4970916062593 87.650029808282852 1350.7753657847643 1066.1595977544785
leaf_count=4911 12712 434 7528 6415
internal_value=0 0.00287843 -0.00226283 -0.00478073
internal_weight=0 2645.15 3397.45 2046.67
internal_count=32000 13146 18854 11326
is_linear=0
shrinkage=0.05


Tree=52
num_leaves=5
num_cat=0
split_feature=27 1 35 35
split_gain=15.5154 16.2561 12.1615 15.8658
threshold=0.70000000000000018 0.89583333333333337 0.80319148936170226 0.54787234042553201
decision_type=2 2 2 2
left_child=1 2 3 -1
right_child=-2 -3 -4 -5
leaf_value=-0.0015561204906672913 0.0039797044400623231 0.0060430192538269327 0.028615392884905812 -0.010039193995500658
leaf_weight=3004.5935820043087 1735.2236317843199 596.19937501847744 30.453022703528404 675.01345806568861
leaf_count=15710 8911 2816 165 4398
internal_value=0 -0.00162039 -0.00285189 -0.00311232
internal_weight=0 4306.26 3710.06 3679.61
internal_count=32000 23089 20273 20108
is_linear=0
shrinkage=0.05


Tree=53
num_leaves=5
num_cat=0
split_feature=35 8 24 40
split_gain=15.3232 15.8366 20.1642 18.2532
threshold=0.14361702127659579 1.0000000180025095e-35 1.0000000180025095e-35 1.0000000180025095e-35
decision_type=2 2 2 2
left_child=-1 2 -2 -3
right_child=1 3 -4 -5
leaf_value=0.012136147435374146 0.0091159986487329408 0.0020723907260397161 -0.0059489167344004799 -0.0043101119999823757
leaf_weight=248.89673389494419 788.57036823034286 1847.1604908630252 309.21947340667248 2846.3676447570324
leaf_count=1120 3706 10092 1460 15622
internal_value=0 -0.000533737 0.0048726 -0.00179825
internal_weight=0 5791.32 1097.79 4693.53
internal_count=32000 30880 5166 25714
is_linear=0
shrinkage=0.05


Tree=54
num_leaves=5
num_cat=0
split_feature=4 12 15 4
split_gain=15.1892 16.5526 16.4094 14.9587
threshold=0.2142857142857143 0.00088192801748660063 1.0000000180025095e-35 0.6428571428571429
decision_type=2 2 2 2
left_child=1 -1 3 -2
right_child=2 -3 -4 -5
leaf_value=0.00071516121401568697 -0.0018649350376457351 0.010858847496398434 -0.011544629082943242 0.0082970885628064223
leaf_weight=1432.1646358817816 3251.9996510148048 559.20920145511627 388.20513135939837 407.51772676408291
leaf_count=7120 17859 2760 2117 2144
internal_value=0 0.00356367 -0.00177019 -0.000733309
internal_weight=0 1991.37 4047.72 3659.52
internal_count=32000 9880 22120 20003
is_linear=0
shrinkage=0.05


Tree=55
num_leaves=5
num_cat=0
split_feature=28 15 12 35
split_gain=14.7294 15.7199 12.4984 20.9576
threshold=1.0000000180025095e-35 1.0000000180025095e-35 0.00080254214450399747 0.57978723404255328
decision_type=2 2 2 2
left_child=1 2 -1 -4
right_child=-2 -3 3 -5
leaf_value=-8.0867707375185808e-05 -0.0059384813889507004 -0.0072365408380275706 0.0069264839345277319 -0.012936053529008885
leaf_weight=2879.9041574895382 893.08031514286995 518.66469564288855 1601.9734134972095 144.80933963507414
leaf_count=15133 4811 2736 8344 976
internal_value=0 0.00101772 0.00194305 0.00527987
internal_weight=0 5145.35 4626.69 1746.78
internal_count=32000 27189 24453 9320
is_linear=0
shrinkage=0.05


Tree=56
num_leaves=5
num_cat=0
split_feature=27 35 26 10
split_gain=14.2541 11.4169 18.0807 14.5592
threshold=0.70000000000000018 0.40957446808510639 0.5277777777777779 0.062500000000000014
decision_type=2 2 2 2
left_child=1 -1 3 -3
right_child=-2 2 -4 -5
leaf_value=0.0004507870820425626 0.0038116282966296211 0.00060744468317282751 -0.020520694916551889 -0.0098483266162599226
leaf_weight=2677.7647957801819 1737.1879178807139 942.77331391721964 165.58077417314053 514.70978033542633
leaf_count=13190 8911 5674 1038 3187
internal_value=0 -0.00155483 -0.00486375 -0.00308501
internal_weight=0 4300.83 1623.06 1457.48
internal_count=32000 23089 9899 8861
is_linear=0
shrinkage=0.05


Tree=57
num_leaves=5
num_cat=0
split_feature=35 28 15 27
split_gain=14.1153 14.283 14.9423 12.8634
threshold=0.1223404255319149 1.0000000180025095e-35 1.0000000180025095e-35 0.70000000000000018
decision_type=2 2 2 2
left_child=-1 2 3 -2
right_child=1 -3 -4 -5
leaf_value=0.020550084874117913 -3.5703736160339082e-05 -0.0061733323265918162 -0.0073832834344663631 0.0058560980338795152
leaf_weight=82.336008280515671 3270.7191207781434 880.53759559243917 510.96195507794619 1292.4888524711132
leaf_count=368 17556 4769 2709 6598
internal_value=0 -0.000294937 0.00072516 0.0016331
internal_weight=0 5954.71 5074.17 4563.21
internal_count=32000 31632 26863 24154
is_linear=0
shrinkage=0.05


Tree=58
num_leaves=5
num_cat=0
split_feature=4 40 4 8
split_gain=13.3127 14.5644 13.8516 17.0592
threshold=0.2142857142857143 1.0000000180025095e-35 0.6428571428571429 1.0000000180025095e-35
decision_type=2 2 2 2
left_child=1 -1 3 -2
right_child=2 -3 -4 -5
leaf_value=0.0094188833742387366 0.003672255605984923 0.00033298961827460437 0.0065962309026263467 -0.0045621885649798476
leaf_weight=658.39586319029331 813.09665459394455 1336.1318351626396 451.31266321241856 2777.5398838147521
leaf_count=3222 3828 6658 2371 15921
internal_value=0 0.00333225 -0.00165979 -0.00269751
internal_weight=0 1994.53 4041.95 3590.64
internal_count=32000 9880 22120 19749
is_linear=0
shrinkage=0.05


Tree=59
num_leaves=5
num_cat=0
split_feature=1 36 27 29
split_gain=13.1218 12.3336 13.437 17.2773
threshold=0.47916666666666669 1.0000000180025095e-35 0.3000000000000001 0.50000000000000011
decision_type=2 2 2 2
left_child=1 2 -1 -4
right_child=-2 -3 3 -5
leaf_value=-0.01303208130012519 0.0026264173212031294 0.0016383926552595149 -0.001776748824978895 -0.034638394934114018
leaf_weight=378.12867199629545 2648.311829328537 1348.2649124488235 1619.4061931148171 41.010935254395008
leaf_count=2386 13146 7528 8721 219
internal_value=0 -0.00207176 -0.0045256 -0.0025884
internal_weight=0 3386.81 2038.55 1660.42
internal_count=32000 18854 11326 8940
is_linear=0
shrinkage=0.05


Tree=60
num_leaves=5
num_cat=0
split_feature=5 35 35 8
split_gain=13.0471 13.9521 12.8339 13.5995
threshold=0.23333333333333336 0.44148936170212771 0.1223404255319149 1.0000000180025095e-35
decision_type=2 2 2 2
left_child=2 -2 -1 -4
right_child=1 -3 3 -5
leaf_value=0.019164104670735413 0.022028080191198094 -0.0084465475562169254 0.0043860957249361706 -0.0018586104768898667
leaf_weight=82.475043445825577 129.19051522016525 52.952193334698677 1070.4456083774567 4699.2130329832435
leaf_count=366 655 326 5030 25623
internal_value=0 0.0131686 -0.000420081 -0.000700029
internal_weight=0 182.143 5852.13 5769.66
internal_count=32000 981 31019 30653
is_linear=0
shrinkage=0.05


Tree=61
num_leaves=5
num_cat=0
split_feature=4 12 35 15
split_gain=11.8952 14.364 14.0063 12.9538
threshold=0.2142857142857143 0.00088192801748660063 0.29255319148936171 1.0000000180025095e-35
decision_type=2 2 2 2
left_child=1 -1 -3 -2
right_child=3 2 -4 -5
leaf_value=0.00048996223214040231 -0.00065444742380937329 0.018783783810069635 0.0029010288004206915 -0.010322502823840986
leaf_weight=1434.1150923073292 3653.5818909406662 248.58854211866856 314.31411716341972 382.76066798716784
leaf_count=7120 20003 1125 1635 2117
internal_value=0 0.00314666 0.00991516 -0.00157126
internal_weight=0 1997.02 562.903 4036.34
internal_count=32000 9880 2760 22120
is_linear=0
shrinkage=0.05


Tree=62
num_leaves=5
num_cat=0
split_feature=1 29 35 35
split_gain=11.8695 12.0958 12.0323 14.1711
threshold=0.47916666666666669 1.0000000180025095e-35 0.80319148936170226 0.57978723404255328
decision_type=2 2 2 2
left_child=2 -2 3 -1
right_child=1 -3 -4 -5
leaf_value=-0.00090641542842203205 0.0031170284620275933 -0.015875365393069576 0.031944490285681637 -0.010180496932566157
leaf_weight=2875.343808747828 2563.7507586702704 86.666699409484863 25.947929531335831 480.78470658510923
leaf_count=15511 12712 434 141 3202
internal_value=0 0.00249599 -0.00197275 -0.00223498
internal_weight=0 2650.42 3382.08 3356.13
internal_count=32000 13146 18854 18713
is_linear=0
shrinkage=0.05


Tree=63
num_leaves=5
num_cat=0
split_feature=5 35 28 35
split_gain=11.7916 12.4196 12.205 13.9885
threshold=0.23333333333333336 0.42021276595744689 1.0000000180025095e-35 0.26063829787234044
decision_type=2 2 2 2
left_child=2 -2 3 -1
right_child=1 -3 -4 -5
leaf_value=0.0046442383602617668 0.022071797142790072 -0.0052099406547919599 -0.0059659544762298983 -0.0011640137191250702
leaf_weight=1465.9784377515316 118.74014116823673 64.309650868177414 843.02747432887554 3539.4146155118942
leaf_count=6885 589 392 4580 19554
internal_value=0 0.0124871 -0.000400285 0.000537106
internal_weight=0 183.05 5848.42 5005.39
internal_count=32000 981 31019 26439
is_linear=0
shrinkage=0.05


Tree=64
num_leaves=5
num_cat=0
split_feature=27 1 0 34
split_gain=11.4873 13.2484 11.3089 12.2352
threshold=0.70000000000000018 0.89583333333333337 0.63169263385267715 0.58333333333333337
decision_type=2 2 2 2
left_child=1 -1 -3 -4
right_child=-2 2 3 -5
leaf_value=-0.0025179108160181766 0.0034155509973599731 -8.7982258488782983e-06 0.012088371071788524 0.079665123596494414
leaf_weight=3691.0880741328001 1741.6351389735937 363.85210178792477 227.05170573294163 6.901766210794448
leaf_count=20273 8911 1717 1066 33
internal_value=0 -0.00139955 0.00550566 0.0140819
internal_weight=0 4288.89 597.806 233.953
internal_count=32000 23089 2816 1099
is_linear=0
shrinkage=0.05


Tree=65
num_leaves=5
num_cat=0
split_feature=40 8 35 9
split_gain=11.5895 14.6938 26.9137 16.0189
threshold=1.0000000180025095e-35 1.0000000180025095e-35 0.27127659574468094 0.3000000000000001
decision_type=2 2 2 2
left_child=-1 -2 -3 -4
right_child=1 2 3 -5
leaf_value=0.0027648168311989025 0.004733367258396912 0.0030561792766761837 -0.0083973583257726317 0.0063141998570084151
leaf_weight=2318.3792867138982 708.92264142632484 1077.7811654210091 1717.3514838069677 207.37990917265415
leaf_count=12296 3332 5073 10141 1158
internal_value=0 -0.00174118 -0.00326989 -0.00681226
internal_weight=0 3711.44 3002.51 1924.73
internal_count=32000 19704 16372 11299
is_linear=0
shrinkage=0.05


Tree=66
num_leaves=5
num_cat=0
split_feature=15 35 34 27
split_gain=10.701 13.144 11.1624 11.8139
threshold=1.0000000180025095e-35 0.23936170212765961 0.58333333333333337 0.70000000000000018
decision_type=2 2 2 2
left_child=2 -2 3 -1
right_child=1 -3 -4 -5
leaf_value=-0.0011442778351160709 0.0076105365816153446 -0.010469079597529992 0.015063351419390719 0.0041092781978240263
leaf_weight=3829.6100365519524 129.22936378419399 452.63797438144684 131.627790145576 1485.0818333551288
leaf_count=20620 611 2499 701 7569
internal_value=0 -0.0064537 0.000679951 0.000323721
internal_weight=0 581.867 5446.32 5314.69
internal_count=32000 3110 28890 28189
is_linear=0
shrinkage=0.05


Tree=67
num_leaves=5
num_cat=0
split_feature=5 40 4 4
split_gain=10.5909 11.9942 14.5689 17.8089
threshold=0.23333333333333336 1.0000000180025095e-35 0.2142857142857143 0.6428571428571429
decision_type=2 2 2 2
left_child=1 2 -1 -4
right_child=-2 -3 3 -5
leaf_value=0.00880962096405743 0.011806063499653128 -0.0021655657801180023 -0.0019044567632804273 0.015273676633478259
leaf_weight=648.60015495121479 183.90243446081877 3604.6169302538037 1421.8237499818206 168.78861559927464
leaf_count=3153 981 19164 7830 872
internal_value=0 -0.000380212 0.0024938 -8.15907e-05
internal_weight=0 5843.83 2239.21 1590.61
internal_count=32000 31019 11855 8702
is_linear=0
shrinkage=0.05


Tree=68
num_leaves=5
num_cat=0
split_feature=35 28 10 35
split_gain=10.4982 11.3853 12.0714 19.1876
threshold=0.1223404255319149 1.0000000180025095e-35 0.077500000000000013 0.29255319148936171
decision_type=2 2 2 2
left_child=-1 2 -2 -4
right_child=1 -3 3 -5
leaf_value=0.017581555855366634 0.0019431034106750216 -0.0055276087596240484 0.0077747057596944599 -0.0076479428994121372
leaf_weight=83.649295568466187 3961.5704635381699 873.62054238468409 265.05475240945816 843.3382840976119
leaf_count=368 20680 4769 1251 4932
internal_value=0 -0.000255801 0.000652601 -0.00395986
internal_weight=0 5943.58 5069.96 1108.39
internal_count=32000 31632 26863 6183
is_linear=0
shrinkage=0.05


Tree=69
num_leaves=5
num_cat=0
split_feature=35 35 29 5
split_gain=10.4999 11.9754 14.5622 13.5367
threshold=0.80319148936170226 0.50531914893617036 1.0000000180025095e-35 0.23333333333333336
decision_type=2 2 2 2
left_child=1 2 3 -1
right_child=-2 -3 -4 -5
leaf_value=0.0009510927709215092 0.027687026595839895 -0.004841290649564671 -0.013439907907520388 0.016642386112964442
leaf_weight=4565.1122848838568 34.029859945178032 1114.5920398682356 170.76784183084965 141.71402241289616
leaf_count=22960 182 7261 880 717
internal_value=0 -0.000165359 0.00090315 0.00142353
internal_weight=0 5992.19 4877.59 4706.83
internal_count=32000 31818 24557 23677
is_linear=0
shrinkage=0.05


Tree=70
num_leaves=5
num_cat=0
split_feature=1 36 35 10
split_gain=9.77377 11.6249 11.6914 11.8957
threshold=0.47916666666666669 1.0000000180025095e-35 0.3563829787234043 1.0000000180025095e-35
decision_type=2 2 2 2
left_child=1 2 -1 -4
right_child=-2 -3 3 -5
leaf_value=-0.00026399441626672994 0.0022625226643646665 0.0018118138864490398 0.02761989756354576 -0.0086612338920756659
leaf_weight=981.56741684675217 2652.9848408550024 1344.2444903925061 23.102699413895607 1023.4861648529768
leaf_count=4911 13146 7528 139 6276
internal_value=0 -0.00179402 -0.00418394 -0.00786035
internal_weight=0 3372.4 2028.16 1046.59
internal_count=32000 18854 11326 6415
is_linear=0
shrinkage=0.05


Tree=71
num_leaves=5
num_cat=0
split_feature=8 24 35 10
split_gain=10.4947 21.5991 15.5656 21.42
threshold=1.0000000180025095e-35 1.0000000180025095e-35 0.27127659574468094 0.077500000000000013
decision_type=2 2 2 2
left_child=1 -1 -2 -4
right_child=2 -3 3 -5
leaf_value=0.0088102577518747605 0.0027853963955260827 -0.0066412874403030736 -0.00091964944720172739 -0.010882488437869743
leaf_weight=790.55066242814064 1750.5923467278481 316.80202634632587 2476.7113886922598 689.75053896009922
leaf_count=3712 8232 1493 14276 4287
internal_value=0 0.00438973 -0.000998121 -0.00308986
internal_weight=0 1107.35 4917.05 3166.46
internal_count=32000 5205 26795 18563
is_linear=0
shrinkage=0.05


Tree=72
num_leaves=5
num_cat=0
split_feature=27 1 0 34
split_gain=9.61182 11.3903 10.0816 10.4487
threshold=0.70000000000000018 0.89583333333333337 0.63169263385267715 0.58333333333333337
decision_type=2 2 2 2
left_child=1 -1 -3 -4
right_child=-2 2 3 -5
leaf_value=-0.002323929834857756 0.003120744566433532 -0.00010413393173183378 0.011316803529848971 0.072807809098106621
leaf_weight=3679.53066072613 1744.1548612490296 363.7999029904604 228.03042155504227 7.1242455393075934
leaf_count=20273 8911 1717 1066 33
internal_value=0 -0.00128307 0.00511123 0.0131797
internal_weight=0 4278.49 598.955 235.155
internal_count=32000 23089 2816 1099
is_linear=0
shrinkage=0.05


Tree=73
num_leaves=5
num_cat=0
split_feature=40 8 1 5
split_gain=9.75618 13.2404 16.0052 12.4092
threshold=1.0000000180025095e-35 1.0000000180025095e-35 1.0000000180025095e-35 0.23333333333333336
decision_type=2 2 2 2
left_child=-1 2 -2 -3
right_child=1 3 -4 -5
leaf_value=0.0025340473562565531 0.043754919183623654 -0.0036047325767387724 0.0031010870960442981 0.015900314101664776
leaf_weight=2320.742486409843 25.097799435257912 2907.6064995005727 684.58186121284962 83.896212093532085
leaf_count=12296 119 15921 3213 451
internal_value=0 -0.00160113 0.00453881 -0.00305772
internal_weight=0 3701.18 709.68 2991.5
internal_count=32000 19704 3332 16372
is_linear=0
shrinkage=0.05


Tree=74
num_leaves=5
num_cat=0
split_feature=15 35 28 12
split_gain=9.56522 11.2158 10.4122 11.2092
threshold=1.0000000180025095e-35 0.23936170212765961 1.0000000180025095e-35 0.00080254214450399747
decision_type=2 2 2 2
left_child=2 -2 3 -1
right_child=1 -3 -4 -5
leaf_value=-0.00035961203595492267 0.0068213806878748067 -0.0098593003544010724 -0.0045794685512864329 0.0047136902397185189
leaf_weight=2879.6026569977403 129.92322725057602 449.14604199677706 812.09179197251797 1750.6796364337206
leaf_count=15133 611 2499 4437 9320
internal_value=0 -0.00611673 0.000642674 0.00155857
internal_weight=0 579.069 5442.37 4630.28
internal_count=32000 3110 28890 24453
is_linear=0
shrinkage=0.05


Tree=75
num_leaves=5
num_cat=0
split_feature=35 35 29 38
split_gain=9.38569 10.8551 11.7366 11.8375
threshold=0.80319148936170226 0.57978723404255328 1.0000000180025095e-35 1.0000000180025095e-35
decision_type=2 2 2 2
left_child=1 2 -1 -4
right_child=-2 -3 3 -5
leaf_value=0.0010162965378631335 0.026044398925181206 -0.006337598770552455 0.0011311396926398417 -0.024358276129707652
leaf_weight=5169.4271499365568 34.375623509287834 635.01974322646856 89.146159149706364 93.137888975441456
leaf_count=26667 182 4195 459 497
internal_value=0 -0.000156792 0.000576606 -0.0118927
internal_weight=0 5986.73 5351.71 182.284
internal_count=32000 31818 27623 956
is_linear=0
shrinkage=0.05


Tree=76
num_leaves=5
num_cat=0
split_feature=34 40 8 35
split_gain=9.34783 9.76449 12.2504 22.2969
threshold=0.58333333333333337 1.0000000180025095e-35 1.0000000180025095e-35 0.27127659574468094
decision_type=2 2 2 2
left_child=1 -1 -3 -4
right_child=-2 2 3 -5
leaf_value=0.0022531431033539842 0.012340838153396688 0.0040405444050452231 0.0024463615908561212 -0.0066517672471601806
leaf_weight=2263.1615272685885 149.46731188893318 692.69282680749893 1055.791878759861 1859.3597252443433
leaf_count=11975 791 3249 4957 11028
internal_value=0 -0.000321426 -0.00193643 -0.00335666
internal_weight=0 5871.01 3607.84 2915.15
internal_count=32000 31209 19234 15985
is_linear=0
shrinkage=0.05


Tree=77
num_leaves=5
num_cat=0
split_feature=35 8 5 4
split_gain=8.99979 9.6113 14.2745 12.5278
threshold=0.1223404255319149 1.0000000180025095e-35 0.16666666666666671 0.2142857142857143
decision_type=2 2 2 2
left_child=-1 -2 3 -3
right_child=1 2 -4 -5
leaf_value=0.01622196976233229 0.0039614935704365408 0.0014591888386793548 0.0078070321437205799 -0.0040560667276807556
leaf_weight=84.230730280280113 1108.3746799081564 1631.0893312096596 403.01113292574883 2792.2811168953776
leaf_count=368 5193 8149 2176 16114
internal_value=0 -0.000237326 -0.00120158 -0.00202235
internal_weight=0 5934.76 4826.38 4423.37
internal_count=32000 31632 26439 24263
is_linear=0
shrinkage=0.05


Tree=78
num_leaves=5
num_cat=0
split_feature=27 1 34 41
split_gain=9.01883 10.5516 10.0157 7.99051
threshold=0.70000000000000018 0.68750000000000011 0.58333333333333337 1.0000000180025095e-35
decision_type=2 2 2 2
left_child=1 -1 -3 -2
right_child=3 2 -4 -5
leaf_value=-0.0026262358033679982 0.00079181745049629586 0.0024212204861658827 0.034199038675903466 0.0081557574103105698
leaf_weight=3262.7930756509304 1215.9959364011884 984.94921157509089 25.435887932777405 528.47722479701042
leaf_count=18245 6246 4724 120 2665
internal_value=0 -0.00124362 0.00322121 0.00302268
internal_weight=0 4273.18 1010.39 1744.47
internal_count=32000 23089 4844 8911
is_linear=0
shrinkage=0.05


Tree=79
num_leaves=5
num_cat=0
split_feature=15 35 0 8
split_gain=8.65009 9.81382 9.86668 9.54275
threshold=1.0000000180025095e-35 0.23936170212765961 0.11038220764415289 1.0000000180025095e-35
decision_type=2 2 2 2
left_child=-1 2 -2 -3
right_child=1 3 -4 -5
leaf_value=0.00061063308247088024 -0.033791203357525793 0.0068468556726261429 0.010961523734433723 -0.01265333918147166
leaf_weight=5440.0832411274314 13.769854232668875 75.513845041394234 116.65394954383373 370.84880363196135
leaf_count=28890 64 358 547 2141
internal_value=0 -0.00582891 0.00623663 -0.00935437
internal_weight=0 576.786 130.424 446.363
internal_count=32000 3110 611 2499
is_linear=0
shrinkage=0.05


Tree=80
num_leaves=5
num_cat=0
split_feature=26 34 28 10
split_gain=8.34817 9.05244 9.79095 12.9643
threshold=0.58333333333333337 0.58333333333333337 0.15625000000000003 0.17750000000000002
decision_type=2 2 2 2
left_child=1 2 -1 -4
right_child=-2 -3 3 -5
leaf_value=0.00097131019857206252 -0.0058082170898384571 0.01327520339453005 -0.0071447356398707754 0.063031943450169034
leaf_weight=4796.3237123340368 562.11261865496635 137.13465585559607 514.19470911473036 6.6664995774626723
leaf_count=25375 3069 716 2797 43
internal_value=0 0.000591389 0.000264263 -0.00624654
internal_weight=0 5454.32 5317.18 520.861
internal_count=32000 28931 28215 2840
is_linear=0
shrinkage=0.05


Tree=81
num_leaves=5
num_cat=0
split_feature=35 35 1 1
split_gain=8.33694 9.80715 10.8698 10.7843
threshold=0.80319148936170226 0.57978723404255328 0.89583333333333337 1.0000000180025095e-35
decision_type=2 2 2 2
left_child=1 -1 3 -3
right_child=-2 2 -4 -5
leaf_value=0.00054760182206889981 0.024421492556905552 0.03766292039789787 0.019765581068063563 -0.0087066765813559755
leaf_weight=5349.634133271873 34.726458221673965 12.815721325576304 38.334381848573685 580.75396709889174
leaf_count=27623 182 87 215 3893
internal_value=0 -0.000148221 -0.00603898 -0.00770551
internal_weight=0 5981.54 631.904 593.57
internal_count=32000 31818 4195 3980
is_linear=0
shrinkage=0.05


Tree=82
num_leaves=5
num_cat=0
split_feature=9 4 12 35
split_gain=8.1407 20.4592 13.4921 10.3047
threshold=0.3000000000000001 0.35714285714285715 0.0012281118064496812 0.26063829787234044
decision_type=2 2 2 2
left_child=3 -2 -3 -1
right_child=1 2 -4 -5
leaf_value=0.0028944144095545128 0.00099468399186322036 0.014785099852465483 0.05517501828260532 -0.0020859376364271574
leaf_weight=1430.1646504849195 651.9333481490612 114.69079130142927 25.223518706858158 3793.635671004653
leaf_count=6693 3280 608 139 21280
internal_value=0 0.00471794 0.0220665 -0.000722424
internal_weight=0 791.848 139.914 5223.8
internal_count=32000 4027 747 27973
is_linear=0
shrinkage=0.05


Tree=83
num_leaves=5
num_cat=0
split_feature=36 29 35 8
split_gain=8.11673 19.1213 16.5237 11.0659
threshold=1.0000000180025095e-35 0.50000000000000011 0.39893617021276601 1.0000000180025095e-35
decision_type=2 2 2 2
left_child=1 2 -1 -2
right_child=3 -3 -4 -5
leaf_value=0.0016523437998210298 0.0099662345843859346 -0.025859359444906894 -0.005365974621069582 0.00075416323319791928
leaf_weight=2273.739119887352 391.75739881396294 78.638023056089878 1328.7444704920053 1942.0803702026606
leaf_count=11033 1820 431 8060 10656
internal_value=0 -0.00146872 -0.000936301 0.0023005
internal_weight=0 3681.12 3602.48 2333.84
internal_count=32000 19524 19093 12476
is_linear=0
shrinkage=0.05


Tree=84
num_leaves=5
num_cat=0
split_feature=27 1 36 12
split_gain=8.10933 9.21961 10.4242 10.4112
threshold=0.70000000000000018 0.68750000000000011 1.0000000180025095e-35 0.00056592658023175751
decision_type=2 2 2 2
left_child=1 2 3 -1
right_child=-2 -3 -4 -5
leaf_value=-0.0091327040955032548 0.0028643313800762946 0.002988384980831104 0.00096302506881372702 -0.0017073690083793773
leaf_weight=809.66795293241739 1746.0316664353013 1011.7568117007613 1314.1161445602775 1132.1937036365271
leaf_count=4580 8911 4844 7348 6317
internal_value=0 -0.0011806 -0.00247606 -0.0048034
internal_weight=0 4267.73 3255.98 1941.86
internal_count=32000 23089 18245 10897
is_linear=0
shrinkage=0.05


Tree=85
num_leaves=5
num_cat=0
split_feature=15 12 35 40
split_gain=8.04077 8.84243 13.2025 12.7176
threshold=1.0000000180025095e-35 0.00080254214450399747 0.57978723404255328 1.0000000180025095e-35
decision_type=2 2 2 2
left_child=1 3 -3 -1
right_child=-2 2 -4 -5
leaf_value=0.0034851487346548981 -0.0056291250875149731 0.0043342514365241362 -0.010339665770362751 -0.0031051045905936157
leaf_weight=1076.8072725757957 574.96988885104656 1908.1290961056948 166.67586418241262 2286.4736499860883
leaf_count=5631 3110 9940 1172 12147
internal_value=0 0.000588448 0.00315545 -0.000995131
internal_weight=0 5438.09 2074.8 3363.28
internal_count=32000 28890 11112 17778
is_linear=0
shrinkage=0.05


Tree=86
num_leaves=5
num_cat=0
split_feature=35 8 5 4
split_gain=7.82665 8.99083 12.894 11.0107
threshold=0.1223404255319149 1.0000000180025095e-35 0.16666666666666671 0.2142857142857143
decision_type=2 2 2 2
left_child=-1 -2 3 -3
right_child=1 2 -4 -5
leaf_value=0.015086459413740969 0.0038378811355932723 0.0013230291966390651 0.0073917065553664937 -0.0038500554895760861
leaf_weight=84.690750852227211 1108.8194085508585 1631.63364905864 404.21878074109554 2783.2768200114369
leaf_count=368 5193 8149 2176 16114
internal_value=0 -0.000221609 -0.00115565 -0.00193822
internal_weight=0 5927.95 4819.13 4414.91
internal_count=32000 31632 26439 24263
is_linear=0
shrinkage=0.05


Tree=87
num_leaves=5
num_cat=0
split_feature=35 1 36 35
split_gain=7.59904 7.96503 9.48481 10.0378
threshold=0.80319148936170226 0.47916666666666669 1.0000000180025095e-35 0.3563829787234043
decision_type=2 2 2 2
left_child=1 2 3 -1
right_child=-2 -3 -4 -5
leaf_value=-0.00034139562551550396 0.023234482492228575 0.0019052703980760831 0.0014990366894129352 -0.0074311746888192356
leaf_weight=981.2706414014101 34.968691825866699 2647.0272748172283 1331.7528269961476 1016.3186364918947
leaf_count=4911 182 13105 7469 6333
internal_value=0 -0.000141858 -0.00176945 -0.00394848
internal_weight=0 5976.37 3329.34 1997.59
internal_count=32000 31818 18713 11244
is_linear=0
shrinkage=0.05


Tree=88
num_leaves=5
num_cat=0
split_feature=26 35 5 8
split_gain=7.51522 10.9903 13.2221 7.97746
threshold=0.58333333333333337 0.3563829787234043 0.23333333333333336 1.0000000180025095e-35
decision_type=2 2 2 2
left_child=3 2 -2 -1
right_child=1 -3 -4 -5
leaf_value=0.0045597850423071892 -0.00084986250277667734 -0.01265122326889264 0.053842219355762444 -0.00035412075165167881
leaf_weight=1014.939358279109 273.3527027964592 275.04174567013979 11.516356110572813 4435.4973327219486
leaf_count=4743 1336 1678 55 24188
internal_value=0 -0.00552206 0.00136117 0.00056091
internal_weight=0 559.911 284.869 5450.44
internal_count=32000 3069 1391 28931
is_linear=0
shrinkage=0.05


Tree=89
num_leaves=5
num_cat=0
split_feature=27 1 5 0
split_gain=7.45122 8.22163 9.04461 7.9313
threshold=0.70000000000000018 0.89583333333333337 0.23333333333333336 0.63169263385267715
decision_type=2 2 2 2
left_child=1 -1 3 -3
right_child=-2 2 -4 -5
leaf_value=-0.0020230043162031133 0.0027444934265151415 -0.0015189565450938452 0.038734940048461973 0.010408246280715674
leaf_weight=3660.9213669896126 1746.9622192233801 352.81844866275787 18.466457009315491 230.40391986072063
leaf_count=20273 8911 1662 85 1069
internal_value=0 -0.00113277 0.00428375 0.00319292
internal_weight=0 4262.61 601.689 583.222
internal_count=32000 23089 2816 2731
is_linear=0
shrinkage=0.05


Tree=90
num_leaves=5
num_cat=0
split_feature=15 35 0 0
split_gain=7.31004 8.50483 8.95187 9.48843
threshold=1.0000000180025095e-35 0.23936170212765961 0.11038220764415289 0.35836716734334695
decision_type=2 2 2 2
left_child=-1 2 -2 -4
right_child=1 -3 3 -5
leaf_value=0.00056079956269027714 -0.032572066974132168 -0.0086866843174326913 0.03498302889379093 0.002086694329995066
leaf_weight=5435.7057595029473 13.598479092121122 442.45364036411047 29.196957245469093 87.947502180933952
leaf_count=28890 64 2499 137 410
internal_value=0 -0.00537594 0.00582813 0.0102857
internal_weight=0 573.197 130.743 117.144
internal_count=32000 3110 611 547
is_linear=0
shrinkage=0.05


Tree=91
num_leaves=5
num_cat=0
split_feature=9 10 35 12
split_gain=7.22642 9.68737 13.3682 20.7169
threshold=0.3000000000000001 1.0000000180025095e-35 0.26063829787234044 0.0012579123873401805
decision_type=2 2 2 2
left_child=1 -1 3 -3
right_child=-2 2 -4 -5
leaf_value=-0.0077132758520867808 0.0044414031944957329 0.0020192278021042192 -0.0016448913055133786 0.021753550916892104
leaf_weight=447.75274445861578 793.04342970997095 1152.8055654615164 3464.6868856176734 150.33349496126175
leaf_count=2407 4027 5381 19486 699
internal_value=0 -0.000681537 -2.11771e-05 0.00429583
internal_weight=0 5215.58 4767.83 1303.14
internal_count=32000 27973 25566 6080
is_linear=0
shrinkage=0.05


Tree=92
num_leaves=5
num_cat=0
split_feature=34 40 12 12
split_gain=7.12894 8.01582 11.9171 10.9604
threshold=0.58333333333333337 1.0000000180025095e-35 0.00043418570530287152 0.00062870916549390675
decision_type=2 2 2 2
left_child=1 2 -1 -3
right_child=-2 3 -4 -5
leaf_value=0.01105868357217734 0.010717008350836504 -0.0042945002181508799 0.00058776870576376819 0.0012468501299990442
leaf_weight=315.79517124593258 151.11977045238018 1943.3688694611192 1947.4426220282912 1649.9823560863733
leaf_count=1690 791 10378 10285 8856
internal_value=0 -0.000282006 0.0020488 -0.00175004
internal_weight=0 5856.59 2263.24 3593.35
internal_count=32000 31209 11975 19234
is_linear=0
shrinkage=0.05


Tree=93
num_leaves=5
num_cat=0
split_feature=29 10 40 8
split_gain=7.1661 14.1107 8.35949 10.0049
threshold=1.0000000180025095e-35 0.17750000000000002 1.0000000180025095e-35 1.0000000180025095e-35
decision_type=2 2 2 2
left_child=2 -2 -1 -4
right_child=1 -3 3 -5
leaf_value=0.0027183895556876433 -0.011987408691140407 0.059915601940856489 0.0043141020358289373 -0.0024518895814344193
leaf_weight=2226.6637785062194 189.39168938994408 7.0783185064792624 672.57199268043041 2911.9513181224465
leaf_count=11752 1021 41 3144 16042
internal_value=0 -0.00939692 0.000312277 -0.00118237
internal_weight=0 196.47 5811.19 3584.52
internal_count=32000 1062 30938 19186
is_linear=0
shrinkage=0.05


Tree=94
num_leaves=5
num_cat=0
split_feature=35 5 8 24
split_gain=7.11365 13.0658 8.84489 19.199
threshold=0.14361702127659579 1.0000000180025095e-35 1.0000000180025095e-35 1.0000000180025095e-35
decision_type=2 2 2 2
left_child=1 -1 3 -2
right_child=2 -3 -4 -5
leaf_value=0.0031188712585605515 0.007775377156695535 0.03356732493036152 -0.0013231374907263563 -0.0068772818511383949
leaf_weight=211.98341593146324 794.53338748216629 42.255840197205544 4647.3135748058558 311.08497543632984
leaf_count=934 3706 186 25714 1460
internal_value=0 0.00817956 -0.000366884 0.0036526
internal_weight=0 254.239 5752.93 1105.62
internal_count=32000 1120 30880 5166
is_linear=0
shrinkage=0.05


Tree=95
num_leaves=5
num_cat=0
split_feature=27 0 12 24
split_gain=6.98516 7.68607 14.2733 11.649
threshold=0.70000000000000018 0.77274545490909829 0.00025264993861724109 1.0000000180025095e-35
decision_type=2 2 2 2
left_child=-1 3 -3 -2
right_child=1 2 -4 -5
leaf_value=-0.0010973377181486216 0.0031154023058855597 -0.050994196145728643 0.010363375334853637 -0.0087134597583338868
leaf_weight=4258.7669508382678 1100.1287796720862 9.7201028242707235 380.93534599989653 256.69746300578117
leaf_count=23089 5650 48 1954 1259
internal_value=0 0.00265681 0.00883671 0.000877504
internal_weight=0 1747.48 390.655 1356.83
internal_count=32000 8911 2002 6909
is_linear=0
shrinkage=0.05


Tree=96
num_leaves=5
num_cat=0
split_feature=4 4 12 0
split_gain=7.0383 10.5247 12.0237 10.2253
threshold=0.6428571428571429 0.2142857142857143 0.00088192801748660063 0.051011020220404414
decision_type=2 2 2 2
left_child=1 2 -1 -4
right_child=-2 -3 3 -5
leaf_value=-2.7428898453807323e-05 0.005996846929045248 -0.0021267927702530967 -0.019228690698680776 0.010200073522425974
leaf_weight=1435.3805137053132 451.72965153306723 3552.808831654489 31.240434549748898 535.00521486997604
leaf_count=7120 2371 19749 153 2607
internal_value=0 -0.000493134 0.00240655 0.00857645
internal_weight=0 5554.43 2001.63 566.246
internal_count=32000 29629 9880 2760
is_linear=0
shrinkage=0.05


Tree=97
num_leaves=5
num_cat=0
split_feature=26 35 5 36
split_gain=6.69289 9.9008 11.611 7.58015
threshold=0.58333333333333337 0.3563829787234043 0.23333333333333336 1.0000000180025095e-35
decision_type=2 2 2 2
left_child=3 2 -2 -1
right_child=1 -3 -4 -5
leaf_value=-0.0009639316637710697 -0.00079766915954697132 -0.012032355639501275 0.049955166948535745 0.0028588929686795893
leaf_weight=3320.3323991373181 273.09949487447739 272.69899854063988 11.754115387797354 2127.6752667948604
leaf_count=17610 1336 1678 55 11321
internal_value=0 -0.0052226 0.00129658 0.000529042
internal_weight=0 557.553 284.854 5448.01
internal_count=32000 3069 1391 28931
is_linear=0
shrinkage=0.05


Tree=98
num_leaves=5
num_cat=0
split_feature=15 12 35 4
split_gain=6.68626 7.44731 11.6288 10.893
threshold=1.0000000180025095e-35 0.00080254214450399747 0.57978723404255328 0.50000000000000011
decision_type=2 2 2 2
left_child=1 -1 3 -3
right_child=-2 2 -4 -5
leaf_value=-0.00091980767724648797 -0.0051500625707425014 0.0026312051043823094 -0.0098401118880626359 0.014479392484779172
leaf_weight=3357.0067339763045 571.34670275449753 1692.6146217212081 165.14357136189938 219.10261904448271
leaf_count=17778 3110 8736 1172 1204
internal_value=0 0.00053613 0.00288948 0.00398913
internal_weight=0 5433.87 2076.86 1911.72
internal_count=32000 28890 11112 9940
is_linear=0
shrinkage=0.05


Tree=99
num_leaves=5
num_cat=0
split_feature=35 35 1 10
split_gain=6.7654 7.06914 9.4118 9.96289
threshold=0.80319148936170226 0.57978723404255328 0.89583333333333337 0.052500000000000012
decision_type=2 2 2 2
left_child=1 -1 -3 -4
right_child=-2 2 3 -5
leaf_value=0.00045370282349364448 0.021839251410323206 -0.0067515676085002987 0.037642165611009609 -0.015416688855175623
leaf_weight=5346.4454261958599 35.237958893179893 584.66475058346987 24.841489717364311 13.741184011101721
leaf_count=27623 182 3980 135 80
internal_value=0 -0.000133753 -0.00517316 0.0187453
internal_weight=0 5969.69 623.247 38.5827
internal_count=32000 31818 4195 215
is_linear=0
shrinkage=0.05


end of trees

feature_importances:
Column_35=119
Column_8=55
Column_1=48
Column_4=30
Column_12=20
Column_27=17
Column_40=15
Column_5=12
Column_15=11
Column_36=11
Column_0=9
Column_9=8
Column_10=8
Column_28=8
Column_29=8
Column_24=7
Column_34=7
Column_26=4
Column_41=2
Column_38=1

parameters:
[boosting: gbdt]
[objective: binary]
[metric: auc]
[tree_learner: serial]
[device_type: cpu]
[data: ]
[valid: ]
[num_iterations: 100]
[learning_rate: 0.05]
[num_leaves: 5]
[num_threads: 0]
[deterministic: 0]
[force_col_wise: 0]
[force_row_wise: 0]
[histogram_pool_size: -1]
[max_depth: -1]
[min_data_in_leaf: 20]
[min_sum_hessian_in_leaf: 0.001]
[bagging_fraction: 1]
[pos_bagging_fraction: 1]
[neg_bagging_fraction: 1]
[bagging_freq: 0]
[bagging_seed: 3]
[feature_fraction: 0.9]
[feature_fraction_bynode: 1]
[feature_fraction_seed: 2]
[extra_trees: 0]
[extra_seed: 6]
[early_stopping_round: 0]
[first_metric_only: 0]
[max_delta_step: 0]
[lambda_l1: 0]
[lambda_l2: 0]
[linear_lambda: 0]
[min_gain_to_split: 0]
[drop_rate: 0.1]
[max_drop: 50]
[skip_drop: 0.5]
[xgboost_dart_mode: 0]
[uniform_drop: 0]
[drop_seed: 4]
[top_rate: 0.2]
[other_rate: 0.1]
[min_data_per_group: 100]
[max_cat_threshold: 32]
[cat_l2: 10]
[cat_smooth: 10]
[max_cat_to_onehot: 4]
[top_k: 20]
[monotone_constraints: ]
[monotone_constraints_method: basic]
[monotone_penalty: 0]
[feature_contri: ]
[forcedsplits_filename: ]
[refit_decay_rate: 0.9]
[cegb_tradeoff: 1]
[cegb_penalty_split: 0]
[cegb_penalty_feature_lazy: ]
[cegb_penalty_feature_coupled: ]
[path_smooth: 0]
[interaction_constraints: ]
[verbosity: 1]
[saved_feature_importance_type: 0]
[linear_tree: 0]
[max_bin: 255]
[max_bin_by_feature: ]
[min_data_in_bin: 3]
[bin_construct_sample_cnt: 200000]
[data_random_seed: 1]
[is_enable_sparse: 1]
[enable_bundle: 1]
[use_missing: 1]
[zero_as_missing: 0]
[feature_pre_filter: 1]
[pre_partition: 0]
[two_round: 0]
[header: 0]
[label_column: ]
[weight_column: ]
[group_column: ]
[ignore_column: ]
[categorical_feature: ]
[forcedbins_filename: ]
[precise_float_parser: 0]
[objective_seed: 5]
[num_class: 1]
[is_unbalance: 0]
[scale_pos_weight: 1]
[sigmoid: 1]
[boost_from_average: 1]
[reg_sqrt: 0]
[alpha: 0.9]
[fair_c: 1]
[poisson_max_delta_step: 0.7]
[tweedie_variance_power: 1.5]
[lambdarank_truncation_level: 30]
[lambdarank_norm: 1]
[label_gain: ]
[eval_at: ]
[multi_error_top_k: 1]
[auc_mu_weights: ]
[num_machines: 1]
[local_listen_port: 12400]
[time_out: 120]
[machine_list_filename: ]
[machines: ]
[gpu_platform_id: -1]
[gpu_device_id: -1]
[gpu_use_dp: 0]
[num_gpu: 1]

end of parameters

pandas_categorical:null
